<?xml version="1.0"?>
<opencv_storage>
<opencv_ml_svm>
  <format>3</format>
  <svmType>C_SVC</svmType>
  <kernel>
    <type>RBF</type>
    <gamma>1.</gamma></kernel>
  <C>1.</C>
  <term_criteria><epsilon>1.1920928955078125e-07</epsilon>
    <iterations>1000</iterations></term_criteria>
  <var_count>11</var_count>
  <class_count>2</class_count>
  <class_labels type_id="opencv-matrix">
    <rows>2</rows>
    <cols>1</cols>
    <dt>i</dt>
    <data>
      0 2</data></class_labels>
  <sv_total>374</sv_total>
  <support_vectors>
    <_>
      -30. -8. 7.27921486e-01 16. 6. 0. 3. 3.04721355e+01 18.
      1.93137093e+01 -6.57981644e+01</_>
    <_>
      0. 0. 0. 0. 0. 0. 1.28994942e+01 -4.56037407e+01 4.57279243e+01
      -5.05533829e+01 30.</_>
    <_>
      1.01071785e+02 0. -1.51934853e+01 -3.09442711e+01 -7. 0.
      -1.82786503e+01 -2.75706577e+01 0. 12. 1.32238312e+02</_>
    <_>
      -35. -3.02740479e+01 6.65919647e+01 3.54319763e+01 1. 0. 4.
      4.19314690e+01 5.03900757e+01 3.62842712e+01 -1.26964893e+01</_>
    <_>
      0. -6.04924240e+01 -7.48060074e+01 -1.89442711e+01 -8.65685463e+00
      0. -1.33570242e+01 -4.33939018e+01 1.20000010e+01 -3.95979767e+01
      5.85786438e+00</_>
    <_>
      4.26579742e+01 -4.35075760e+01 0. 0. -1.72448349e+01 0.
      1.53127384e+00 -6.71918335e+01 -1.18890198e+02 -1.15453987e+01
      4.20710678e+01</_>
    <_>
      -80. -8.09848480e+01 -2.78775864e+01 3.68091393e+01 4.60055313e+01
      0. 3.60696602e+00 1.84852829e+01 42. 88. 6.27160187e+01</_>
    <_>
      1.25117378e+02 7.28064346e+01 -2.22426414e+01 -1.96568546e+01
      -2.81231060e+01 0. 9.82842636e+00 -2.24927578e+01 -6.44822922e+01
      -4.87476463e+01 30.</_>
    <_>
      1.17286476e+02 1.94573578e+02 4.60715103e+01 -1.84852810e+01
      -8.41421318e+00 0. 1.84142132e+01 2.26142712e+01 -8.67068329e+01
      -1.69870331e+02 -3.47612534e+01</_>
    <_>
      -40. -1.43324966e+01 6.02703781e+01 3.65854836e+01 5.86370373e+00
      0. 0. 0. -4.95912552e+01 4.54518700e+00 2.48659271e+02</_>
    <_>
      -15. -64. -6.03693161e+01 -4. 1.82842708e+00 0. -1.73245544e+01
      -16. 0. 4. 1.27462112e+02</_>
    <_>
      -1.39520264e+02 -9.24666443e+01 1.55559631e+02 1.27353363e+01
      -2.34644146e+01 0. 1.08863497e+01 -2.73811588e+01 -5.67901077e+01
      8.46483536e+01 2.68257141e+02</_>
    <_>
      -3.77296295e+01 -9.30424957e+01 -3.30371857e-01 -3.55453987e+01
      2.25436878e+01 0. 1.51622772e+01 5.52273788e+01 6.22322617e+01
      1.61081757e+02 1.22626740e+02</_>
    <_>
      1.35837784e+02 -8.86133728e+01 -1.06277458e+02 1.04344536e+02
      5.06198454e+00 0. 2.28909340e+01 7.27502289e+01 7.02407837e+01
      6.65964432e+01 8.33562546e+01</_>
    <_>
      1.72424835e+02 1.75728424e+02 6.90766602e+01 -5.10481834e+01
      -3.59746056e+01 0. -4.37778854e+01 2.34096565e+01 6.79469376e+01
      8.53403549e+01 2.37572784e+02</_>
    <_>
      -1.12703354e+02 -1.12659538e+02 -6.62132034e+01 -3.56204987e+01
      3.16785851e+01 0. -1.36112709e+01 4.92650490e+01 8.61070633e+01
      68. 40.</_>
    <_>
      -6.88391418e+01 -8.52926559e+01 -1.11035805e+02 3.42761154e+01
      1.91638184e+01 0. 1.21266766e+01 5.42923355e+00 4.34279556e+01
      5.78885422e+01 1.66337646e+02</_>
    <_>
      -9.12291031e+01 1.02296165e+02 -3.65106277e+01 -16.
      -2.19760723e+01 0. 3.13515015e+01 -2.29380245e+01 -7.08922577e+00
      -6.49883270e+01 -2.37421265e+01</_>
    <_>
      -9.11803436e+01 -1.04579697e+02 -1.51784500e+02 -8.31639786e+01
      -2.38246937e+01 0. 2.53693161e+01 20. 1.30202560e+02
      7.96838531e+01 9.77463074e+01</_>
    <_>
      3.54101944e+00 -2.18380241e+01 -1.01619978e+01 8.94876175e+01
      -1.29009800e+01 0. 3.05214615e+01 7.07954178e+01 3.84239273e+01
      7.75370407e+01 -3.68554764e+01</_>
    <_>
      1.49230667e+02 6.98135986e+01 -1.74852810e+01 -2.40972557e+01
      -3.88147507e+01 0. 9.89949417e+00 2.74558449e+01 -8.01341400e+01
      -1.19410965e+02 -7.26765747e+01</_>
    <_>
      -7.97711945e+01 -4.87102203e+01 1.23435356e+02 -3.24896698e+01
      -2.54020767e+01 0. -1.97477551e+01 30. 8.82508240e+01
      -9.13084984e+00 -1.46279602e+02</_>
    <_>
      -4.94974747e+01 -1.06278999e+02 -9.71132050e+01 -3.01425705e+01
      -7.86761379e+00 0. -3.03064137e+01 -2.81265011e+01 5.82213440e+01
      2.03788208e+02 9.06617584e+01</_>
    <_>
      -8.12241821e+01 -1.03424606e+02 -7.84879074e+01 5.28934631e+01
      -8.67896271e+00 0. 4.15723658e+00 -1.03734627e+02 -5.18053894e+01
      6.49793396e+01 -1.19200020e+01</_>
    <_>
      -1.01498795e+02 -4.08995590e+01 -1.02300522e+02 1.18802025e+02
      3.58238182e+01 0. 3.44923859e+01 7.04699554e+01 1.28179291e+02
      -1.79449768e+02 -1.89143616e+02</_>
    <_>
      2.81149788e+01 -9.71057816e+01 -9.63798294e+01 -4.82397766e+01
      -3.32053719e+01 0. -1.83237267e+01 -8.98200607e+01 -5.29246788e+01
      6.49793396e+01 1.40976730e+02</_>
    <_>
      -1.62643951e+02 -1.01799774e+02 -6.76069794e+01 -3.10732613e+01
      -1.41756783e+01 0. -2.94337826e+01 -2.48775864e+01 9.14695168e+00
      1.78289551e+02 1.46451355e+02</_>
    <_>
      -8.59017029e+01 -4.92022514e+01 -8.98048401e-01 7.03409424e+01
      2.20548439e+01 0. 3.90011101e+01 1.15215469e+02 5.58894958e+01
      3.69705658e+01 3.28486252e+01</_>
    <_>
      1.46709503e+02 1.05792053e+02 5.72197952e+01 -9.37928104e+00
      -4.12579842e+01 0. 1.51323843e+01 3.20175323e+01 5.28230972e+01
      -7.83648300e+01 -1.45735626e+02</_>
    <_>
      7.98530426e+01 5.37103043e+01 -3.80967255e+01 -7.19386215e+01
      -2.85714741e+01 0. 1.58206053e+01 2.84721355e+01 5.90218353e+01
      -1.31758377e+02 -1.21460068e+02</_>
    <_>
      8.17423477e+01 -5.95624084e+01 -3.94643707e+01 -4.72933350e+01
      -12. 0. 12. 5.48298359e+00 -9.36663132e+01 -9.40034409e+01
      -6.79002609e+01</_>
    <_>
      6.93451004e+01 4.76110840e+01 -9.40053711e+01 -1.02534492e+02
      -2.83268795e+01 0. 1.24721355e+01 3.73215027e+01 -8.04940567e+01
      -1.08865440e+02 -8.19640045e+01</_>
    <_>
      1.06611618e+02 -1.12452339e+02 -1.69010162e-01 -3.08328152e+01
      -12. 0. 1.54868317e+01 -3.37247124e+01 -7.60909348e+01
      -9.75285873e+01 -2.94646111e+01</_>
    <_>
      1.54487762e+01 -7.42803116e+01 -1.40025299e+02 -6.73254547e+01
      -11. 0. 9.48528099e+00 1.16184483e+01 -8.52532959e+01
      -9.07545547e+01 -3.61169434e+01</_>
    <_>
      -1.51334808e+02 -1.69125229e+02 -4.48328171e+01 -3.03606777e+01
      -1.44721355e+01 0. -3.53622055e+01 -4.94340897e+01 -6.54974670e+01
      -2.29406967e+01 7.94099808e+00</_>
    <_>
      1.40134171e+02 2.45343018e+01 -30. -3.05149288e+01 5.18457985e+00
      0. -2.27861767e+01 -1.14961510e+01 9.53064575e+01 2.10134079e+02
      2.21213745e+02</_>
    <_>
      -7.96409912e+01 -3.54268570e+01 1.03910057e+02 4.46494255e+01
      7.80311871e+00 0. 5.47808075e+01 5.01891403e+01 45. 2.06957817e+00
      -2.12259583e+02</_>
    <_>
      6.54541626e+01 3.20983200e+01 -8.10740662e+01 -1.32636047e+02
      -2.17715282e+01 0. -4.44766808e+01 -4.51387787e+01 2.47279205e+01
      5.41728134e+01 3.17098145e+02</_>
    <_>
      -6.59017029e+01 -5.88328133e+01 -4.55410233e+01 -2.58332291e+01
      3.08633232e+01 0. -1.10326138e+01 -2.48035774e+01 9.19691162e+01
      -3.67570267e+01 2.06852570e+02</_>
    <_>
      -1.00615524e+02 -3.46011276e+01 -18. -2.17858448e+01
      1.16613674e+01 0. -1.07646646e+01 6.99591970e+00 7.90602417e+01
      -5.39079437e+01 2.19814392e+02</_>
    <_>
      -55. -28. -21. -3.31569595e+01 -1.50440426e+01 0. 1.47147751e+01
      1.97989883e+01 4.23393707e+01 -2.21807308e+01 2.36782875e+01</_>
    <_>
      -6.39852371e+01 -56. -36. -3.55933800e+01 -2.37481194e+01 0.
      1.41224165e+01 2.35453968e+01 -8.68046570e+00 1.67982197e+01
      7.08113861e+01</_>
    <_>
      -65. -9.43809662e+01 -8.35866928e+01 -2.59016876e+01
      -3.86882668e+01 0. 2.78414211e+01 20. 4.89736633e+01
      9.67979660e+01 1.07155518e+02</_>
    <_>
      -55. -24. -2.17279205e+01 -3.98831177e+01 -4.16751556e+01 0. 15.
      32. 5.86069756e+01 6.78822479e+01 3.75396385e+01</_>
    <_>
      -5.03553391e+01 -6.60729523e+01 -1.31579987e+02 -5.70699997e+01
      -2.13913956e+01 0. 1.51622772e+01 5.43002510e+01 -1.45855331e+00
      5.88328171e+01 9.18252869e+01</_>
    <_>
      -2.05736053e+02 -3.93820801e+01 -6.30314102e+01 -32.
      -1.57082033e+01 0. 3.44677849e+01 3.84852791e+01 2.89705658e+01
      1.06420128e+02 6.36205673e+01</_>
    <_>
      -7.40150070e+01 -5.69442711e+01 -33. -2.44721355e+01
      -2.08005409e+01 0. 2.01622772e+01 2.09705620e+01 3.53181000e+01
      9.25255585e+01 1.67716354e+02</_>
    <_>
      -1.71019836e+02 -5.22579803e+01 -33. -12. -1.21289892e+01 0.
      1.15432034e+01 2.49442711e+01 3.21640511e+01 7.89111252e+01
      1.56955307e+02</_>
    <_>
      -9.24811096e+01 -6.99148331e+01 -42. -12. -1.56855574e+01 0.
      2.90748119e-01 22. 2.34852810e+01 3.22842712e+01 6.35738831e+01</_>
    <_>
      -1.11025894e+02 -3.82631531e+01 -1.01639267e+02 -3.07422314e+01
      -1.22606478e+01 0. -3.42520370e+01 -4.05670509e+01 -2.48528099e+00
      16. 5.82842712e+01</_>
    <_>
      -95. -9.31516876e+01 -6.63910828e+01 -2.89442711e+01
      -1.22360678e+01 0. -2.16782665e+00 -5.69027519e+01 -5.18267899e+01
      -7.31370831e+00 25.</_>
    <_>
      -35. -8.20300369e+01 -1.29440811e+02 -4.00006790e+01 -8. 0.
      7.65028191e+00 2.10732613e+01 -4.48328171e+01 -2.73137093e+01
      -5.10866623e+01</_>
    <_>
      0. 0. 0. 0. 0. 0. 0. 0. 0. -16. -40.</_>
    <_>
      20. -4. -6.70362091e+01 -1.04852810e+01 1.56543446e+01 0.
      -4.14213538e-01 4.03238945e+01 7.24264050e+00 -5.08704147e+01
      -9.01362457e+01</_>
    <_>
      -1.86602535e+01 -1.09141533e+02 -9. 6.44425011e+00 2.19320335e+01
      0. 2.30452824e+01 26. 2.51950378e+01 -3.83700447e+01
      -8.50321045e+01</_>
    <_>
      -1.44029800e+02 -1.05050140e+02 -2.41405334e+01 1.01298615e+02
      -1.06793346e+01 0. 1.46593771e+01 -9.10883255e+01 -9. 0.
      -2.29128799e+01</_>
    <_>
      -1.31299545e+02 1.87112427e+02 -1.54985153e+02 -9.85820312e+01
      -5.24045105e+01 0. 1.94927764e+00 -6.86382904e+01 1.08859795e+02
      1.84517670e+02 3.18049652e+02</_>
    <_>
      -5. 0. -2.31925163e+01 0. -6.82842731e+00 0. -3.11811371e+01
      1.04721382e+02 1.18747673e+02 1.83607635e+02 2.50601318e+02</_>
    <_>
      -2.07682220e+02 -1.09643623e+02 9.37309742e+00 2.48388596e+01
      -5.31830978e+01 0. 4.70185432e+01 8.39768066e+01 8.06271973e+01
      -8.40365601e+01 2.37070541e+02</_>
    <_>
      -1.79921692e+02 -1.23868134e+02 -1.10809731e+02 -5.25794029e+01
      -1.49442711e+01 0. 3.81680450e+01 7.25607910e+01 4.81700211e+01
      6.61294250e+01 -8.83996124e+01</_>
    <_>
      -1.21845512e+02 -2.02591614e+02 -1.50639862e+02 -8.50055466e+01
      -1.05957136e+01 0. 2.43286762e+01 8.82600250e+01 1.32854675e+02
      2.08149673e+02 -7.86446838e+01</_>
    <_>
      -4.79501343e+00 -1.33608963e+02 -1.63754837e+02 -6.87426682e+01
      -3.36848106e+01 0. -5.02488251e+01 3.12124100e+01 1.39056961e+02
      2.47227921e+02 1.58720245e+02</_>
    <_>
      -8.22153778e+01 -2.42822937e+02 6.97380219e+01 9.77131653e+00
      -2.32867737e+01 0. 4.78837357e+01 4.82536736e+01 7.03619461e+01
      1.98599976e+02 -1.46625671e+02</_>
    <_>
      -7.39333344e+00 -2.15272659e+02 -1.23178680e+02 9.12158737e+01
      -3.47710800e+01 0. 2.94852581e+01 3.91768990e+01 4.17488022e+01
      1.01657440e+02 4.07419624e+01</_>
    <_>
      -2.39808884e+02 -2.05077347e+02 -1.35615555e+02 3.96077633e+00
      8.63811398e+00 0. 5.67084312e+01 1.14924591e+02 -5.97770691e+00
      6.43598099e+01 2.66888031e+02</_>
    <_>
      -3.29825226e+02 -2.04387695e+02 9.05862427e+01 -1.10905960e+02
      -3.27063103e+01 0. 5.37249327e+00 2.62297840e+01 1.57284180e+02
      2.80428040e+02 1.17347809e+02</_>
    <_>
      -1.35388794e+02 -1.95426697e+02 -1.76164856e+02 -9.39005432e+01
      -5.54560518e+00 0. 4.24198952e+01 8.62120895e+01 1.22913719e+02
      9.25471573e+01 4.44665375e+01</_>
    <_>
      -9.30249176e+01 -1.16045494e+02 -1.40028580e+02 -8.28929901e+01
      -3.59350014e+01 0. 1.47811413e+01 -1.15214577e+01 1.28126343e+02
      2.31902191e+02 1.77899628e+02</_>
    <_>
      -7.76831512e+01 2.66420326e+01 -2.27573586e+01 -9.12778931e+01
      -6.35725288e+01 0. -1.31283398e+01 4.87624588e+01 1.76192551e+02
      1.10994659e+02 -1.21488342e+01</_>
    <_>
      -1.64844952e+01 -1.05020393e+02 -1.71599548e+02 -2.96190948e+01
      -3.80789108e+01 0. 2.26729298e+01 8.11937943e+01 3.79032440e+01
      5.04950409e+01 -7.30746155e+01</_>
    <_>
      -1.68023376e+02 -3.03541473e+02 -1.27453186e+02 -7.93837051e+01
      3.56748619e+01 0. 7.98942108e+01 9.18653183e+01 -1.82513599e+01
      1.72170048e+01 4.03994232e+02</_>
    <_>
      -2.38729004e+02 -1.40380753e+02 -8.62094498e+00 2.21996803e+01
      -3.45202065e+01 0. 4.54797249e+01 7.33969574e+01 -3.94653282e+01
      -5.20989895e+00 1.73600250e+02</_>
    <_>
      -3.47832825e+02 -1.40329742e+02 -4.06777000e+01 -2.70843697e+00
      -5.28966188e+00 0. 5.00308914e+01 1.19445190e+02 1.40617584e+02
      7.05425720e+01 -7.81320496e+01</_>
    <_>
      -1.22999397e+02 -2.01164276e+02 -1.10986771e+02 -9.09207153e+01
      3.72191811e+01 0. 5.24446564e+01 9.64892578e+01 1.12672203e+02
      -4.37596893e+00 6.90197983e+01</_>
    <_>
      -1.11093216e+02 -2.37952515e+02 -8.03947983e+01 -1.94295540e+01
      1.27374706e+01 0. 1.94013329e+01 8.41447678e+01 3.38337517e+01
      1.07400925e+02 -9.59536896e+01</_>
    <_>
      -9.53884354e+01 -3.90935478e+01 -3.70951767e+01 -4.69710693e+01
      -3.18376198e+01 0. 4.84164238e+01 8.18186035e+01 9.92300873e+01
      1.29451797e+02 1.49772491e+02</_>
    <_>
      8.53998795e+01 2.53282013e+01 -4.93747711e+01 -4.92813072e+01
      -3.79057503e+01 0. 3.55801697e+01 3.76674995e+01 7.10538330e+01
      8.83332901e+01 1.07844208e+02</_>
    <_>
      4.15773087e+01 1.98188324e+01 -1.46766525e+02 -1.17195259e+02
      -5.53946533e+01 0. 0. 0. 1.33923035e+01 -2.47036362e+00
      1.10888100e+02</_>
    <_>
      -4.20710678e+01 -24. -21. -1.47353172e+01 8.12403870e+00 0. -13.
      -4. 9.99487076e+01 -5.26706924e+01 -2.25054474e+02</_>
    <_>
      8.78401031e+01 -68. -5.51372910e+01 5.35546074e+01 3.87853165e+01
      0. 3.57539825e+01 2.35727329e+01 -4.67511253e+01 8.26331329e+01
      1.46425018e+02</_>
    <_>
      -1.18573883e+02 -7.47917404e+01 -7.11392822e+01 3.18393173e+01
      4.19912605e+01 0. 6.55165625e+00 6.18561935e+01 8.22051163e+01
      -6.46730576e+01 -2.23935432e+01</_>
    <_>
      3.82842712e+01 -6.15899582e+01 -1.04923958e+02 -2.48167458e+01
      3.06310463e+01 0. -1.69283676e+01 -1.65685415e+00 -9.53511238e-01
      7.21835175e+01 1.39173859e+02</_>
    <_>
      -7.98173676e+01 -40. 7.93422089e+01 5.58018227e+01 1.64535446e+01
      0. 1.53005619e+01 2.38564072e+01 5.93575363e+01 36.
      -3.12907658e+01</_>
    <_>
      1.73799744e+02 9.70908890e+01 6.82007980e+01 2.92022514e+01
      1.62448349e+01 0. 10. 3.57409630e+01 4.76114464e+01 6.49442749e+01
      -2.50107605e+02</_>
    <_>
      1.30750229e+02 5.31122017e+00 -1.04053726e+02 -5.27774429e+01
      3.15822124e+00 0. -6.47870874e+00 0. 0. 0. 2.52494392e+01</_>
    <_>
      0. 20. 6.88769073e+01 4.48328171e+01 -4.81271648e+00 0.
      1.78690624e+01 -1.57092392e+02 -1.91750778e+02 -1.78259537e+02
      -1.09922623e+02</_>
    <_>
      -1.53747559e+02 -1.66051590e+02 4.23153801e+01 1.19663162e+02
      4.62350616e+01 0. -3.30041656e+01 3.22371101e+01 -2.72427330e+01
      1.80131104e+02 1.41372086e+02</_>
    <_>
      2.92235168e+02 2.10376160e+02 1.40258820e+02 1.17196800e+02
      3.62920761e+01 0. 3.07964840e+01 9.45465927e+01 -7.34257507e+01
      -2.80729889e+02 -2.68683929e+02</_>
    <_>
      2.56395599e+02 1.88087036e+02 1.12517418e+02 7.74293518e+01
      -5.43122444e+01 0. -5.80166473e+01 -1.25092720e+02 -1.48277100e+02
      -1.90465073e+02 -1.87282104e+02</_>
    <_>
      1.63949432e+02 -2.24822647e+02 -6.65079956e+01 9.85018539e+01
      5.39187393e+01 0. -5.24033279e+01 -3.50884743e+01 1.39084808e+02
      3.15620880e+01 -2.31517456e+02</_>
    <_>
      1.98979813e+02 1.32584351e+02 9.81453476e+01 -1.31853638e+01 -21.
      0. 2.53140717e+01 -3.23889961e+01 -1.10831429e+02 -1.63258270e+02
      -1.26662033e+02</_>
    <_>
      2.98127747e+00 -4.45850563e+01 -8.36545944e+01 -6.13121109e+01
      3.75696487e+01 0. -4.82229385e+01 -7.08523178e+01 9.99418564e+01
      1.03848869e+02 1.12671143e+02</_>
    <_>
      1.89736649e+02 2.03736481e+02 1.36928528e+02 1.07237343e+02
      -2.26590252e+01 0. 2.01121521e+01 5.15910568e+01 -1.10124153e+02
      -1.94819534e+02 -1.85327682e+02</_>
    <_>
      -6.32842712e+01 -1.13015350e+02 -2.56002674e+01 1.06814545e+02
      2.29103451e+01 0. 1.95027962e+01 -8.37218399e+01 -7.94486694e+01
      6.54888382e+01 1.47855240e+02</_>
    <_>
      -1.29272995e+02 1.70113869e+01 1.11594688e+02 8.83392105e+01
      3.78259392e+01 0. -3.55128326e+01 4.54660873e+01 8.77228241e+01
      2.76731186e+01 -1.99001160e+02</_>
    <_>
      2.35519623e+02 8.58135986e+01 9.73008575e+01 -5.69808083e+01
      -2.17329941e+01 0. -6.82672043e+01 -5.78105164e+01 9.33693161e+01
      2.41854736e+02 -2.02769775e+02</_>
    <_>
      -5. 2.15725906e+02 -8.10941982e+00 -8.17683563e+01 2.38146186e+00
      0. -3.73205090e+00 5.70998344e+01 6.39106979e+01 -1.25379547e+02
      -1.42634064e+02</_>
    <_>
      8.48026810e+01 -1.10315788e+02 -3.92923584e+01 -2.82842708e+00
      2.49001389e+01 0. 1.21874170e+01 6.62209244e+01 -4.10190773e+01
      -8.51563950e+01 -7.04483871e+01</_>
    <_>
      2.77183990e+02 2.56031219e+02 7.61594696e+01 -48. -3.88503418e+01
      0. -4.23171425e+01 -1.01613678e+02 -1.43479355e+02 -1.98917084e+02
      -5.17365417e+01</_>
    <_>
      -1.45370499e+02 6.19925117e+01 1.25096085e+02 -5.52341042e+01
      1.70506153e+01 0. -3.18926449e+01 4.46302528e+01 -5.28550873e+01
      -1.69219025e+02 2.03446564e+02</_>
    <_>
      -8.52404594e+00 1.28305450e+02 2.83868790e-01 2.35281830e+01
      3.52462120e+01 0. -1.16693354e+00 4.07780991e+01 4.87082062e+01
      -1.29049652e+02 -1.52930786e+02</_>
    <_>
      1.71595947e+02 1.09668510e+02 -1.75574265e+01 -14. 3.72266960e+00
      0. -5.08425999e+00 -7.44516449e+01 -5.46001778e+01 -7.35549164e+01
      8.28836594e+01</_>
    <_>
      8.00007935e+01 -1.13750122e+02 6.25259552e+01 3.04721355e+01
      2.44152241e+01 0. 3.52786398e+00 -5.46309280e+00 -1.23234997e+01
      -1.26732376e+02 -1.13500854e+02</_>
    <_>
      -1.00811386e+02 -1.31671858e+01 4.46590500e+01 -6.90305862e+01
      -1.59706078e+01 0. -1.05243750e+01 3.83673935e+01 -4.72705002e+01
      1.74102364e+01 1.17567871e+02</_>
    <_>
      7.81551514e+01 7.73938751e+01 -3.94332600e+00 -3.64544773e+00
      3.10349579e+01 0. -3.29609909e+01 1.24750214e+01 -5.60795403e+00
      56. 8.57377930e+01</_>
    <_>
      1.12416580e+02 8.29630966e+01 3.17733345e+01 -6. 1.90869446e+01 0.
      1.27147751e+01 -2.14391556e+01 3.91386452e+01 -7.84706268e+01
      -9.91859741e+01</_>
    <_>
      1.33798203e+02 6.14040375e+01 5.49847107e+01 -2.30557289e+01
      -1.72263241e+00 0. -3.76819382e+01 -6.36440010e+01 5.85952797e+01
      -8.69640427e+01 -1.32651108e+02</_>
    <_>
      1.05445129e+02 -1.17004410e+02 -6.33196564e+01 7.28116531e+01
      1.99282074e+01 0. -2.47213602e+00 -6.08215561e+01 -1.11262455e+01
      1.04877663e+00 -2.51637955e+01</_>
    <_>
      -2.32514076e+01 -1.66239334e+02 -6.28811646e+01 7.12683792e+01
      4.12450294e+01 0. 1.12125168e+01 6.87695312e+01 -2.42599010e+00
      -2.43319702e+02 -1.36602535e+01</_>
    <_>
      -7.63932037e+00 7.61363297e+01 8.71879501e+01 6.03119965e+01
      3.01414280e+01 0. 1.95962658e+01 28. 4.58359146e+00
      -5.98559608e+01 -1.35995026e+02</_>
    <_>
      2.29891647e+02 3.99435654e+01 -63. 8.25798035e+00 3.73322411e+01
      0. -1.53618689e+01 -7.58606186e+01 2.41656933e+01 64.
      4.88196602e+01</_>
    <_>
      6.47870865e+01 1.13414238e+02 1.23063797e+02 3.03164883e+01
      1.56344128e+01 0. 2.17557392e+01 -1.70713158e+01 -6.92751083e+01
      -4.87115860e+01 -9.03062820e+01</_>
    <_>
      1.65928009e+02 -5.09664307e+01 -3.02416706e+01 4.18912849e+01
      1.75311337e+01 0. -1.92596283e+01 -9.55610657e+01 6.82111435e+01
      7.72664948e+01 8.49718475e+00</_>
    <_>
      7.89292221e+01 4.29006577e+00 -8.28822479e+01 4.15480881e+01
      3.73641014e+01 0. 1.83245544e+01 1.73508911e+01 -8.22245865e+01
      -3.03892765e+01 8.49718475e+00</_>
    <_>
      8.85410156e+01 8.45375671e+01 1.23869705e+01 -6.61369705e+01
      -7.23133278e+00 0. -3.45300980e+01 -3.19016876e+01 -4.20263062e+01
      1.14346512e+02 1.14447052e+02</_>
    <_>
      1.71581085e+02 1.95188507e+02 8.15201416e+01 4.33610306e+01
      -3.45683975e+01 0. -2.12480106e+01 -1.21922775e+02 -8.76921387e+01
      1.18595749e+02 1.25010681e+02</_>
    <_>
      9.39192810e+01 1.52011292e+02 1.19468948e+02 3.51964912e+01
      -6.23217106e+00 0. -5.52600527e+00 -3.34241066e+01 -1.05614891e+02
      -1.12991501e+02 -7.88963623e+01</_>
    <_>
      1.13282562e+02 8.32921143e+01 -72. -4.28742905e+01 2.47955837e+01
      0. -3.96686630e+01 -4.51259384e+01 -2.39367981e+01 1.27873474e+02
      -7.07159805e+01</_>
    <_>
      -3.19540787e+01 -1.59057999e+02 6.16808815e+01 7.90366745e+01
      2.85624218e+01 0. 1.82254267e+00 7.51500931e+01 -6.74478149e+01
      -1.08372986e+02 -2.03384521e+02</_>
    <_>
      1.05811386e+02 1.87493393e+02 4.18722572e+01 4.65423431e+01
      -3.67761574e+01 0. -1.73005619e+01 -5.26176949e+01 -3.07279205e+01
      -12. 1.27678284e+02</_>
    <_>
      -2.44379959e+01 1.18981552e+02 6.93637466e+01 4.05280762e+01
      2.70184593e+01 0. -1.03395844e+00 -8.63042374e+01 -1.22444130e+02
      -6.47213593e+01 -1.03584854e+02</_>
    <_>
      9.01301575e+00 -28. 4.04616356e+01 3.21719894e+01 2.96750755e+01
      0. -1.89356632e+01 -2.10703392e+01 -4.24212723e+01 1.83431454e+01
      2.38196602e+01</_>
    <_>
      7.76501694e+01 5.74656754e+01 8.17652206e+01 6.54896927e+01
      1.46344137e+01 0. -3.89292240e+00 4.65823708e+01 5.18830490e+01
      -1.16067459e+02 -2.02213135e+02</_>
    <_>
      1.28528412e+02 1.35260742e+02 -5.43157310e+01 -34. -1.56344137e+01
      0. -3.95852051e+01 -5.17610359e+01 -6.27648773e+01 -1.29439392e+02
      1.29321960e+02</_>
    <_>
      -70. -3.90557289e+01 4.70891533e+01 7.11625137e+01 2.60022411e+01
      0. -3.77624626e+01 3.74092865e+01 21. 8.68629074e+00
      -1.35990387e+02</_>
    <_>
      1.23543579e+02 7.89913330e+01 3.58087158e+01 5.06833229e+01
      1.18920641e+01 0. 6. 9.17157269e+00 -4.36539841e+01
      -1.97654610e+01 8.30384903e+01</_>
    <_>
      5.94414139e+01 9.75933838e+01 4.38497200e+01 -2.12660122e+01
      9.74691391e-01 0. -8.72134972e+00 -4.78495407e+01 2.17406845e+01
      -9.80858078e+01 -5.96867485e+01</_>
    <_>
      -9.41889954e+01 -52. -9. 2.70171165e+01 -2.42334843e+01 0.
      -1.59217949e+01 7.95461960e+01 4.72947502e+00 -4.66416969e+01
      1.96151276e+02</_>
    <_>
      1.25370598e+01 -1.64153687e+02 -9.15562820e+01 4.07764320e+01
      -3.94569817e+01 0. 18. 6.17960129e+01 -5.19615221e+00
      3.61138382e+01 -4.14972000e+01</_>
    <_>
      -7.53562546e+00 -5.39894600e+01 0. 0. 0. 0. 0. 0. 0. 0.
      -7.07106781e+00</_>
    <_>
      7.07106781e+00 0. 0. 0. 0. 0. 0. 0. 0. 0. -3.67423477e+01</_>
    <_>
      0. 0. 0. 0. 0. 0. 0. 0. 0. 0. 0.</_>
    <_>
      25. 0. 0. 0. -6.65685463e+00 0. 2. -8. -7.36981659e+01
      -8.78312225e+01 -5.86602554e+01</_>
    <_>
      -6.19854202e+01 -9.52163925e+01 -8.21649551e+01 -5.45403938e+01
      1.72190113e+01 0. 17. 18. 5.37648811e+01 1.03148262e+02
      1.07058609e+02</_>
    <_>
      -2.59016991e+01 9.73317108e+01 1.16349440e+01 2. 3.82842731e+00 0.
      2.74493160e+01 4.45093231e+01 4.27082062e+01 -2.62331810e+01
      -1.30339241e+01</_>
    <_>
      1.32514076e+01 5.07064743e+01 -3. -4.72937469e+01 -2.58504963e+01
      0. -4.02585564e+01 -1.95944881e+00 8.06523438e+01 7.50300751e+01
      1.45407684e+02</_>
    <_>
      -1.11803398e+01 -9.76905746e+01 -5.19792480e+01 -10. 0. 0. -6. -4.
      -3.58496208e+01 1.09282036e+01 -3.61803398e+01</_>
    <_>
      -8.19917297e+01 1.17537399e+02 -9.44502640e+01 -5.21395264e+01
      -2.73385944e+01 0. -2.47529678e+01 -8.50040665e+01 1.24023033e+02
      8.42451324e+01 1.52601593e+02</_>
    <_>
      1.16870117e+02 8.85562515e+00 -6.82434998e+01 -2.18695412e+01
      -2.08061466e+01 0. -2.65205574e+01 6.63890533e+01 1.53679581e+02
      -1.47224388e+01 -1.34933899e+02</_>
    <_>
      -8.71300735e+01 -8.25798035e+00 2.63181000e+01 -5.93929100e+01
      -3.76153717e+01 0. 1.56298294e+01 -3.04215698e+01 -1.44091736e+02
      1.61565437e+01 0.</_>
    <_>
      -7.72338562e+01 -9.88706131e+01 -7.95669785e+01 -2.43822937e+01
      -9.15769386e+00 0. -1.04070539e+01 2.01606894e+00 5.26485863e+01
      7.96940536e+01 5.00498352e+01</_>
    <_>
      -3.59396057e+01 1.55889557e+02 5.05115891e+01 -6.69943714e+00 0.
      0. 1.74176083e+01 1.51289091e+01 -1.30693893e+02 -9.49126053e+01
      -4.43174744e+00</_>
    <_>
      -5. -4.42842712e+01 -9. 2.67300053e+01 2.79650154e+01 0. 0. 0. 0.
      0. 3.54357071e+01</_>
    <_>
      7.47310257e+01 8.94394379e+01 3.81837692e+01 1.77989883e+01 -2. 0.
      0. 4.82842731e+00 3. 0. 4.11276741e+01</_>
    <_>
      1.42572662e+02 4.92158318e+01 -1.42917957e+01 -10. -1. 0. 0. 0. 0.
      8. -7.67692261e+01</_>
    <_>
      3.74595032e+01 3.97712402e+01 -3.95607376e+01 -4.05882759e+01
      -1.42109041e+01 0. 0. 1.04852819e+01 -3.12339973e+01
      -3.23370361e+01 2.29289322e+01</_>
    <_>
      1.12132034e+01 -2.56568546e+01 -2.61443291e+01 -2.39722404e+01
      -1.78317852e+01 0. 4.82842731e+00 1.05220671e+01 30.
      6.89861450e+01 1.22116028e+02</_>
    <_>
      -6.04541626e+01 -2.89705620e+01 -57. -4.58359289e+00
      -2.10947285e+01 0. 1.79216251e+01 2.68328152e+01 7.99336700e+01
      -1.73098572e+02 1.68279343e+01</_>
    <_>
      5.24968872e+01 -48. -6.51164474e+01 -5.68223801e+01
      -1.25945530e+01 0. -4.99501114e+01 -4.46266937e+01 6. 24.
      6.08213310e+01</_>
    <_>
      -2.29289322e+01 -6.54602280e+01 -5.68807068e+01 -3.36910324e+01
      -12. 0. 2.60243893e+01 2.44721355e+01 -6.17411499e+01
      -1.63717621e+02 -6.75537338e+01</_>
    <_>
      1.92795212e+02 1.68756668e+02 -6.49762878e+01 -9.32804794e+01
      -1.04740686e+01 0. -5.06417046e+01 -3.62843628e+01 3.89758224e+01
      1.36173172e+02 8.69436493e+01</_>
    <_>
      0. 0. 0. 0. 0. 0. 0. 0. -15. -64. 1.43017624e+02</_>
    <_>
      -6.56449509e+01 1.51149078e+02 66. -3.04349556e+01 -2.11146507e+01
      0. -1.69980850e+01 4.19854164e+01 6.43774872e+01 -8.22310410e+01
      -1.18391182e+02</_>
    <_>
      -1.37522552e+02 -9.08345413e+01 8.24851151e+01 3.10956173e+01
      -3.47556496e+01 0. -3.58894310e+01 3.05736618e+01 -3.26426010e+01
      -8.42561188e+01 1.37657272e+02</_>
    <_>
      -5.16870575e+01 7.17127151e+01 4.54205093e+01 -5.81244049e+01
      -1.09669065e+01 0. -22. 0. 7.78863907e+01 6.14872932e+01
      -9.99535828e+01</_>
    <_>
      5. 9.93925705e+01 5.91132317e+01 0. -1.69634743e+01 0.
      1.69795179e+00 3.18400192e+01 0. 1.47940643e+02 3.03224754e+01</_>
    <_>
      1.37716125e+02 28. -2.77674980e+01 -7.65448532e+01 -1.77634029e+01
      0. -5.22692204e+00 -3.63557434e+01 6. 4.81945114e+01
      6.34945412e+01</_>
    <_>
      -4.11248817e+01 -1.17451492e+02 -18. -5.47060890e+01
      1.63667793e+01 0. 4. 4.48144455e+01 6.99939651e+01 -1.67659439e+02
      -1.65875549e+02</_>
    <_>
      -6.29289322e+01 -1.04912422e+02 6.74784775e+01 9.70675049e+01
      2.11803417e+01 0. 2.02754002e+01 -6.97686386e+01 -1.47841415e+02
      2.50402412e+01 1.68052795e+02</_>
    <_>
      -1.66935291e+01 2.42923004e+02 8.71470108e+01 -4.45167351e+01
      -1.60055447e+01 0. -3.89257889e+01 5.52786446e+00 4.45253677e+01
      -9.44272041e-01 -2.07694809e+02</_>
    <_>
      1.22524475e+02 9.70561981e-01 -6. -4.82842731e+00 -2.16837292e+01
      0. 0. -1.01289902e+01 -8.44944458e+01 -100. 5.17120590e+01</_>
    <_>
      -3.78023911e+01 -1.87286510e+01 1.19958786e+02 3.45903435e+01
      -8.97469139e+00 0. -3.82211533e+01 -5.72258415e+01 8.48528099e+00
      5.65401878e+01 3.81966019e+00</_>
    <_>
      2.08596619e+02 8. -18. -2.05358982e+01 4.20595512e+01 0.
      4.65028191e+00 32. -3.79342117e+01 -2.02467102e+02 4.58113861e+01</_>
    <_>
      1.04257935e+02 1.92963943e+02 7.24337082e+01 -2.44721355e+01
      -1.20008488e+01 0. -4.56073608e+01 -4.58223801e+01 21.
      7.67801437e+01 -5.87439842e+01</_>
    <_>
      1.23475082e+02 1.54020035e+02 12. -2. -4. 0. -3.06449509e+00 4. 0.
      0. 1.91421356e+01</_>
    <_>
      -75. -4.98513603e+01 -6. -6. 6.60993862e+00 0. 2.50336227e+01
      8.18471146e+01 1.11749557e+02 1.04541191e+02 1.16180344e+02</_>
    <_>
      -9.01095581e+01 -7.54819260e+01 3.93359680e+01 -3.30732613e+01
      -3.75546570e+01 0. 2.82915649e+01 1.84721355e+01 2.77279243e+01
      3.86274147e+01 1.21670044e+02</_>
    <_>
      -1.01622772e+02 -1.38884659e+02 -1.10375053e+02 -5.17538757e+01
      -2.29810848e+01 0. 1.23650570e+01 3.64133530e+01 -8.23267937e+00
      7.22695084e+01 7.30056305e+01</_>
    <_>
      -9.23606796e+01 -7.23890152e+01 -7.43461685e+01 -3.11690750e+01
      -8.41421318e+00 0. 2.46837597e+01 4.72982216e+01 4.92426414e+01
      3.95979767e+01 4.74264069e+01</_>
    <_>
      -1.02024590e+02 -8.50511246e+01 -3.90021973e+01 -2.26142712e+01
      -7. 0. 1.80219135e+01 4.91793175e+01 3.48904324e+00 7.47584534e+01
      1.02434166e+02</_>
    <_>
      -25. -3.29705620e+01 -5.76198883e+01 -8.09357529e+01
      -1.16700459e+01 0. 0. 14. 4.11165886e+01 8.44924240e+01
      7.00438385e+01</_>
    <_>
      -9.23945084e+01 -1.40585632e+02 -6.03637466e+01 -20.
      -2.35025826e+01 0. 4.70485067e+00 4.44896736e+01 5.79498749e+01
      1.31583923e+02 1.16575638e+02</_>
    <_>
      -3.91421356e+01 -7.62735672e+01 7.78033905e+01 -2.69442711e+01
      -3.03267250e+01 0. 2.47299061e+01 3.37979584e+01 5.62404480e+01
      6.58885422e+01 5.15356789e+01</_>
    <_>
      -35. 4.10124397e+01 -9.69651222e+00 -2.54164066e+01
      -4.26136665e+01 0. 2.30772972e+01 4.81384239e+01 4.55410233e+01
      3.39411240e+01 7.29727631e+01</_>
    <_>
      -75. 3.75677338e+01 -5.83606339e+01 -5.92691612e+01
      -3.23511772e+01 0. 7. 3.19412193e+01 1.97739811e+01 4.36596222e+01
      6.76928482e+01</_>
    <_>
      -3.41421356e+01 -1.00081078e+02 -9.64438858e+01 -3.97835007e+01
      -6.41421366e+00 0. 9.92733765e+00 4.66316223e+01 3.03628654e+01
      16. 8.57000198e+01</_>
    <_>
      -5.72761688e+01 -7.98358841e+01 -1.94361267e+01 -10.
      -2.16274624e+01 0. 1.79442711e+01 1.64852810e+01 21.
      8.57390747e+01 6.22210121e+00</_>
    <_>
      -8.51637878e+01 -9.65685463e+00 -2.17082043e+01 -2.99254608e+01
      -9.60829544e+00 0. 4. 14. 1.00977631e+02 8.60330811e+01
      4.82514076e+01</_>
    <_>
      -15. -1.13148735e+02 8.02044449e+01 -20. -4. 0. -1.23091087e+01
      2.36568527e+01 3. 8.37035141e+01 -1.52715607e+02</_>
    <_>
      -40. -16. -7.23669205e+01 3.61146774e+01 -1.15366306e+01 0.
      1.74659119e+01 -3.89174690e+01 2.22426414e+01 8. 8.09076996e+01</_>
    <_>
      -1.35883530e+02 -5.67981644e+01 -6. -1.75453968e+01 1.25383472e+01
      0. 5.06011124e+01 5.56207733e+01 15. 8.16265488e+01
      -1.46710556e+02</_>
    <_>
      -8.71403885e+01 -6.21513290e+01 -1.93238144e+01 -2.78631859e+01
      -1.17546482e+01 0. 1.49780855e+01 5.18257065e+01 8.83586693e+00
      1.93137093e+01 5.89834557e+01</_>
    <_>
      -7.38634949e+01 -7.59371948e+01 2.57950554e+01 -2.42579784e+01
      -1.25366306e+01 0. 1.39442234e+01 6.97836761e+01 -4.68963699e+01
      6.34635887e+01 -5.42499657e+01</_>
    <_>
      5.54304581e+01 -2.05850563e+01 -7.74943314e+01 -4.27528648e+01
      -6.82842731e+00 0. 2. 16. 3.51443291e+01 1.28641190e+02
      2.08432709e+02</_>
    <_>
      -8.00438385e+01 -4.28853951e+01 -2.29705620e+01 -8. -5. 0.
      6.09637642e+00 16. 1.43187515e+02 9.48621674e+01 2.48851509e+01</_>
    <_>
      -1.70710678e+01 0. -12. 1.26877575e+01 -3.17157292e+00 0.
      6.26327782e+01 3.83092422e+01 3. 0. -9.14213562e+00</_>
    <_>
      4.28595352e+01 -4.55933838e+01 -1.31228378e+02 -4.05652466e+01
      -1.66830406e+01 0. 1. 1.66355782e+01 -5.74669495e+01
      7.85004730e+01 1.04082275e+02</_>
    <_>
      1.07373863e+02 -5.47052879e+01 -5.54687119e+01 2.46076202e+01
      -6.80709505e+00 0. -1.49097404e+01 7.88277912e+00 3.54852829e+01
      3.61345024e+01 -5.99091187e+01</_>
    <_>
      -15. -2.08965054e+01 5.08202972e+01 -2. -9.39834595e+00 0.
      9.17232704e+00 0. 5.38405685e+01 -3.25318184e+01 25.</_>
    <_>
      -8.08586578e+01 6.69589920e+01 -7.41627026e+00 -18. 1.20772161e+01
      0. 0. 0. 9. 0. 90.</_>
    <_>
      -3.32514076e+01 -4.89577179e+01 -5.67791100e+01 -6.83319473e+01
      3.94586525e+01 0. 4.58694687e+01 2.74734039e+01 -1.13209335e+02
      7.11017151e+01 5.74007874e+01</_>
    <_>
      1.60924835e+02 4.29118729e+01 -1.02943748e+02 1.72689285e+01
      3.91174965e+01 0. 3.30616379e+01 3.21769981e+01 -3.09234886e+01
      -1.14286804e+02 -4.65614700e+01</_>
    <_>
      -30. -8. -21. -2.51915092e+01 -1.28783150e+01 0. 1.31637611e+01
      -7.15881958e+01 -8.86314392e+01 2.18380241e+01 5.32842712e+01</_>
    <_>
      -4.65356789e+01 -7.55618744e+01 -39. 2.17842636e+01 4.70612297e+01
      0. 1.84069080e+01 2.30732613e+01 5.85472221e+01 7.07530212e+01
      5.94646111e+01</_>
    <_>
      5.57466049e+01 1.49399109e+02 9.77124634e+01 2.10609436e+01
      -1.04721355e+01 0. 2.13844032e+01 -5.32213593e+01 -1.11776566e+02
      -1.35987061e+02 -4.46446991e+00</_>
    <_>
      -9.16227722e+01 -6.06491089e+01 -1.04150879e+02 -5.74109650e+01
      5.84589195e+00 0. -2.76067848e+01 2.95363731e+01 7.83693161e+01
      1.24530571e+02 1.70355026e+02</_>
    <_>
      2.28890045e+02 1.36102905e+02 -3.76494713e+01 -3.29442711e+01
      -1.86705475e+01 0. -3.96955633e+00 -9.27922974e+01 -2.14775009e+01
      6.49186249e+01 1.36708313e+02</_>
    <_>
      -1.97337372e+02 -5.60611496e+01 1.00221710e+02 -2.63738232e+01
      -3.57785797e+01 0. 2.45014992e+01 -5.50065765e+01 -4.94374161e+01
      8.28328171e+01 2.20699524e+02</_>
    <_>
      -1.15121567e+02 -1.13046349e+02 1.64383820e+02 -4.87714815e+00
      -2.18983974e+01 0. 2.07443371e+01 -5.52335396e+01 -7.40513458e+01
      4.75453987e+01 2.20820541e+02</_>
    <_>
      -1.06762009e+02 1.52983398e+02 6.74902267e+01 -1.76568546e+01
      -4.16342773e+01 0. -4.86628246e+00 -9.11326828e+01 3.76296158e+01
      1.01546158e+02 1.05762398e+02</_>
    <_>
      -1.20710678e+01 3.65714798e+01 3.37082062e+01 2. 0. 0. 0.
      -4.47213602e+00 3. 1.13137083e+01 1.70710678e+01</_>
    <_>
      -15. -8. -3. -2.49766121e+01 2.74649124e+01 0. 2.71307716e+01
      1.49574175e+01 1.02142754e+01 -1.28365356e+02 -2.16036606e+00</_>
    <_>
      -1.01312042e+02 -1.68119995e+02 -3.64730835e+01 -2.95754375e+01
      3.68149223e+01 0. 2.67796669e+01 4.70901718e+01 24. 1.07891083e-01
      -1.09931564e+02</_>
    <_>
      -1.19425888e+02 -1.82379211e+02 -7.74295044e+01 -4.56753778e+00
      5.81228638e+00 0. 3.72416267e+01 3.39618454e+01 8.35973454e+00
      -4.39719925e+01 1.85083405e+02</_>
    <_>
      -1.14984741e+02 -32. 7.65692444e+01 -3.34091110e+01
      -1.36955252e+01 0. 2.50061588e+01 3.29165115e+01 -3.78187256e+01
      -2.97961636e+01 1.27433846e+02</_>
    <_>
      -9.08630600e+01 -44. 1.29997345e+02 -3.52895012e+01
      -2.61241951e+01 0. 8.41421318e+00 -4.63111649e+01 5.76867981e+01
      8.04047699e+01 1.11009033e+02</_>
    <_>
      -5.73935432e+01 8.31930466e+01 -8.57893219e+01 -5.46814995e+01
      -2.34444466e+01 0. -1.30167580e+01 2.43992538e+01 6.51194992e+01
      1.20629898e+02 9.25911942e+01</_>
    <_>
      -30. 8.89537811e+01 -7.85313034e+00 -4.06154251e+01
      -2.27504234e+01 0. -2.28861828e+01 2.77183590e+01 5.46697235e+01
      7.88035431e+01 1.20866211e+02</_>
    <_>
      -5. 5.11686287e+01 3.07539482e+01 -1.68989792e+01 -2.97619801e+01
      0. 5.24264050e+00 0. -5.19078445e+01 9.48877716e+00 65.</_>
    <_>
      -8.98859100e+01 -28. 2.76487827e+00 2.62944279e+01 -1.99760742e+01
      0. 2.21723881e+01 3.28551750e+01 -4.41640663e+00 -1.26115852e+02
      85.</_>
    <_>
      -1.45177246e+02 -7.26213074e+01 -2.77082043e+01 5.46733437e+01
      -2.74476604e+01 0. 2.27973690e+01 4.68916054e+01 2.89705620e+01
      4.35453987e+01 -1.13465103e+02</_>
    <_>
      -1.00861954e+02 -6.86570663e+01 -8.91949158e+01 -4.62518349e+01
      -1.56524754e+01 0. 1.63844032e+01 4.07055244e+01 4.73757019e+01
      9.15473938e+01 1.27045975e+02</_>
    <_>
      -3.41421356e+01 8.79064331e+01 -5.54605026e+01 -4.50510292e+01
      -1.76406364e+01 0. 1.41289902e+01 -3.59105682e+01 4.99235420e+01
      3.36568527e+01 8.21946869e+01</_>
    <_>
      -5.76831551e+01 -4. -9. 1.44922352e+01 1.79868450e+01 0.
      2.41767063e+01 8.47474289e+01 4.58540878e+01 4.46491089e+01
      1.17023720e+02</_>
    <_>
      -8.26669617e+01 -1.12172989e+02 -5.69315491e+01 -14.
      1.56768980e+01 0. 12. 2.73978157e+01 9.93802185e+01 1.02951706e+02
      4.24264069e+01</_>
    <_>
      1.34100967e+02 7.31370831e+00 -1.09508448e+01 -5.98618050e+01
      -9.18760109e+00 0. 1.77931519e+01 -5.92423096e+01 12.
      6.83370438e+01 2.05089706e+02</_>
    <_>
      -1.00750694e+02 -8. -4.32923012e+01 1.51908464e+01 4.45168257e+00
      0. 1.71622772e+01 6. 4.82998238e+01 -5.48147354e+01
      -8.03181000e+01</_>
    <_>
      -7.17120590e+01 -1.31448746e+02 -9. -4.49965897e+01 3.05857468e+01
      0. 2.33269005e+01 5.19602814e+01 7.24264050e+00 1.35789948e+01
      -1.36954193e+02</_>
    <_>
      -2.41421356e+01 -7.14266052e+01 -8.83868027e+01 -4.
      -1.08275452e+01 0. 7.82842731e+00 3.34163246e+01 3.34472618e+01
      7.64525299e+01 -1.34874313e+02</_>
    <_>
      -5.90627975e+01 -8.37204208e+01 -1.39565716e+01 2.99051380e+01
      -2.54492455e+01 0. 1.81289902e+01 1.69423256e+01 -5.15851135e+01
      0. 7.98173676e+01</_>
    <_>
      -3.43915749e+01 9.49352074e+00 4.72922745e+01 -4. -1.12173319e+01
      0. 1.45366306e+01 -5.76564827e+01 -3.31655998e+01 2.49705639e+01
      1.31405640e+02</_>
    <_>
      -2.61499176e+01 1.01989777e+02 7.24264050e+00 -7.65685463e+00
      -2.13600197e+01 0. -2.03876686e+01 -2.99554195e+01 9.
      5.10907936e+01 1.34204651e+02</_>
    <_>
      -1.32569916e+02 -1.20606552e+02 5.68448868e+01 2. -8.21075916e+00
      0. 1.47678280e+01 -5.50782623e+01 -1.60314560e+01 3.15453987e+01
      1.54984970e+02</_>
    <_>
      -7.65028152e+01 -9.12921524e+01 4.03242493e+01 1.85693893e+01 0.
      0. 9.86370277e+00 -1.81364670e+01 1.42917957e+01 5.47422295e+01
      1.18616882e+02</_>
    <_>
      -4.35337105e+01 -16. -2.29959927e+01 7.59372253e+01 0. 0.
      1.76969395e+01 1.45558338e+01 0. 6.10774803e+01 8.22777252e+01</_>
    <_>
      -1.07835976e+02 -6.20646706e+01 -4.08894920e+01 -1.59493828e+01
      -6.41421366e+00 0. 2.02360687e+01 3.23900757e+01 3.21246109e+01
      9.97346878e+01 1.50182556e+02</_>
    <_>
      -1.08101997e+02 -3.52124748e+01 -2.61443310e+01 -2.32688274e+01
      -8.24264050e+00 0. 3.37088108e-01 2.06491108e+01 4.38074188e+01
      5.58358765e+01 5.59575424e+01</_>
    <_>
      1.00988235e+01 -1.53137093e+01 -4.08412666e+01 -5.13380394e+01
      -6.82842731e+00 0. -1.36850414e+01 -2.82232780e+01 0.
      4.87981682e+01 1.36051834e+02</_>
    <_>
      -1.30458126e+01 -1.34079865e+02 -6.90572357e+01 -4.06760674e+01
      -1.08929214e+01 0. 2.22205601e+01 3.16583176e+01 3.02132034e+01
      4.82842712e+01 2.99978561e+01</_>
    <_>
      -9.57252579e+01 -6.91800232e+01 -3.46296158e+01 -1.44852819e+01
      -2.04665928e+01 0. 2.16811905e+01 2.63738232e+01 4.93747711e+01
      4.50747261e+01 8.66016388e+01</_>
    <_>
      -1.02983063e+02 -7.98973923e+01 -4.14376755e+01 -3.08182449e+01
      -2.16700459e+01 0. 7.82842731e+00 1.56568546e+01 2.04852829e+01
      6.29118767e+01 -3.81381760e+01</_>
    <_>
      5.11803398e+01 0. -12. -3.15350723e+01 -1.55121546e+01 0.
      1.46995964e+01 0. 0. 4.17288818e+01 1.45058441e+02</_>
    <_>
      3.32899323e+01 4.84896698e+01 0. -3.41638794e+01 -1.34721355e+01
      0. -7.36803675e+00 -3.07314911e+01 1.44852810e+01 3.82419128e+01
      1.03129906e+02</_>
    <_>
      -7.20245895e+01 -5.43291092e+01 6.66083145e+01 0. -1.33486900e+01
      0. -6.20767307e+00 -3.04471226e+01 -3. 16. 8.68545609e+01</_>
    <_>
      -4.90956573e+01 -5.84572220e+01 -1.92426414e+01 -3.17341957e+01
      -8.25865364e+00 0. 2.48237381e+01 3.97979584e+01 3.57268448e+01
      1.69705620e+01 -2.62654991e+01</_>
    <_>
      -6.06449509e+01 -7.81426239e+01 2.47129707e+01 1.45400562e+01 -6.
      0. 2.43048096e+01 3.29070892e+01 1.74655647e+01 -5.06011276e+01
      1.70710678e+01</_>
    <_>
      1.75121674e+02 1.46011257e+01 -21. -2.25373631e+01 -1.33458109e+01
      0. 2.09584084e+01 1.46096430e+01 1.02822180e+01 8.86238327e+01
      1.13462418e+02</_>
    <_>
      -2.41421356e+01 -5.35406570e+01 -1.17108717e+01 -3.24278755e+01
      -1.15093451e+01 0. 7.24264050e+00 1.08284273e+01 5.82147560e+01
      7.31023865e+01 5.51630669e+01</_>
    <_>
      -2.91421356e+01 -4.09705620e+01 -1.09508448e+01 1.97474594e+01
      2.78753910e+01 0. 2. 2.08989792e+01 4.60161285e+01 8.26416931e+01
      8.10545197e+01</_>
    <_>
      1.20710678e+01 8. 0. 0. -6. 0. 2.52109718e+00 30. 2.79016914e+01
      5.53730049e+01 4.22474480e+01</_>
    <_>
      8.16641464e+01 2.97979584e+01 -18. -12. -1.37726984e+01 0. 1.
      -3.62709332e+00 -7.53176575e+01 8. 7.01800461e+01</_>
    <_>
      -8.98913116e+01 -3.22579803e+01 4.62366962e+00 2.36130352e+01
      -3.23606801e+00 0. 2.28054771e+01 12. 0. 1.29442720e+01
      8.06465073e+01</_>
    <_>
      1.73071014e+02 0. -1.54387932e+01 -2.08936539e+01 -1.15719070e+01
      0. -9.27170372e+00 -8.95320892e-01 3.49705658e+01 7.23981323e+01
      1.02877129e+02</_>
    <_>
      -5.73935432e+01 -1.61785355e+01 -6.50994339e+01 -4.71141701e+01
      -6.23606777e+00 0. -3.57633162e+00 6.45697937e+01 4.82691727e+01
      1.03431454e+01 -4.70256577e+01</_>
    <_>
      -1.88226608e+02 -4.75453949e+01 5.20405426e+01 -1.64535446e+01
      -3.04769363e+01 0. -1.28090591e+01 3.33204956e+01 12.
      4.15981293e-01 -1.19723450e+02</_>
    <_>
      -4.43354912e+01 -5.49773560e+01 6.57260666e+01 -2.25946503e+01
      -3.18376541e+01 0. 3.73205090e+00 -3.47138901e+01 -8.37372437e+01
      1.61411057e+01 1.24124466e+02</_>
    <_>
      -8.32031860e+01 4.35708694e+01 -1.27279215e+01 -5.59040108e+01
      -2.14721375e+01 0. -2.26934376e+01 6.69943714e+00 6.22335358e+01
      5.23960800e+01 -2.12132034e+01</_>
    <_>
      -7.60645676e+00 -3.13137093e+01 -3.84573975e+01 -5.17157269e+00
      1.82663021e+01 0. 1.47566252e+01 3.99392700e+01 4.01812859e+01
      -1.22258425e+01 1.16732567e+02</_>
    <_>
      -4.11803398e+01 0. 0. -8. 0. 0. 6.23606777e+00 0. 0. 0. 25.</_>
    <_>
      5. 0. 0. 0. 0. 0. 0. 0. 0. 0. -5.</_>
    <_>
      5. 0. 0. 0. 0. 0. 0. 0. 0. 0. -7.07106781e+00</_>
    <_>
      0. 0. 0. 0. 0. 0. 0. 0. 0. 0. -5.</_>
    <_>
      1.41421356e+01 0. 0. 0. 0. 0. 0. 0. 0. 0. -5.</_>
    <_>
      3.25140762e+00 0. 0. -6. 0. 0. 0. 0. 0. 0. -2.78023891e+01</_>
    <_>
      7.07106781e+00 0. 0. 0. -2. 0. 0. 0. 0. 0. -1.70710678e+01</_>
    <_>
      -1.88196602e+01 0. 0. 0. 0. 0. 0. 0. 0. 0. -7.07106781e+00</_>
    <_>
      1.73205070e+01 0. 0. 0. 0. 0. 0. 0. 0. 0. -5.</_>
    <_>
      -7.92893219e+00 0. 0. 0. 0. 0. 0. 6. 3. 0. 10.</_>
    <_>
      0. 0. 0. -7.28651047e-01 0. 0. 0. 0. 0. 0. -8.66025352e+00</_>
    <_>
      4.09807587e+01 0. 0. 0. 0. 0. 0. 0. 0. 0. -5.</_>
    <_>
      2.32842712e+01 0. 0. 0. -1. 0. 0. 0. 0. 0. -2.20710678e+01</_>
    <_>
      -40. 0. 0. 0. -1. 0. 1. 0. 0. 0. -1.70710678e+01</_>
    <_>
      -50. 0. 0. 0. -3. 0. 0. 0. 0. 4. 2.20710678e+01</_>
    <_>
      -45. 0. 0. 0. -3. 0. 0. 0. 0. 0. 30.</_>
    <_>
      -10. 0. -4.24264050e+00 0. -4. 0. 1. 0. 0. 0. 20.</_>
    <_>
      0. 0. 0. 0. -2. 0. 1. 0. 0. 0. -1.70710678e+01</_>
    <_>
      -50. 0. 0. 0. 0. 0. 0. 4. 3. 0. 10.</_>
    <_>
      0. 0. 0. -4. 0. 0. 0. 0. 0. 0. 2.92893219e+00</_>
    <_>
      -10. 0. 0. 0. 0. 0. 0. 0. 0. 0. 35.</_>
    <_>
      0. 0. 0. 0. 0. 0. 0. 0. 0. 0. -3.28427124e+00</_>
    <_>
      0. 0. 0. 0. 0. 0. 1. 0. 0. 0. -2.20710678e+01</_>
    <_>
      -2.29289322e+01 0. 0. 0. 0. 0. 0. 0. 0. 0. -5.</_>
    <_>
      0. 0. 0. -2. 0. 0. 0. 0. 0. 0. 20.</_>
    <_>
      -5. 0. 0. 0. 0. 0. 1. 0. 0. 0. 20.</_>
    <_>
      -5. 0. 0. 0. 0. 0. 1. 0. 0. 0. 45.</_>
    <_>
      0. 0. 0. 0. -1. 0. 0. 0. 0. 0. 15.</_>
    <_>
      0. 0. 0. 0. 0. 0. 0. 2. 3. 0. 10.</_>
    <_>
      0. 0. 0. 0. 0. 0. 0. 0. 0. 0. -5.</_>
    <_>
      -30. 0. 0. 0. 0. 0. 1. 0. 0. 0. 40.</_>
    <_>
      0. 0. 0. 0. 0. 0. 0. 0. 0. 0. -1.70710678e+01</_>
    <_>
      -4.11803398e+01 0. 0. 0. 0. 0. 0. 0. 0. 0. 10.</_>
    <_>
      0. 0. 0. 0. 0. 0. 1. 0. 0. 0. 25.</_>
    <_>
      0. 0. 0. 0. 0. 0. 1. 0. 0. 0. 40.</_>
    <_>
      -5. 0. 0. 0. -1. 0. 0. 0. 0. 0. 15.</_>
    <_>
      0. 0. 0. 0. 0. 0. 0. 0. 0. 0. 40.</_>
    <_>
      0. 0. 0. 0. -2. 0. 0. 0. 0. 0. 20.</_>
    <_>
      0. 0. 7.24264050e+00 -14. 0. 0. 0. 0. 0. 0. 45.</_>
    <_>
      0. 0. 0. 0. 0. 0. 0. 0. 0. 0. -1.41421356e+01</_>
    <_>
      0. 0. 0. 0. 0. 0. 0. 0. 0. 0. -8.66025352e+00</_>
    <_>
      0. 0. 0. -4. 0. 0. 0. 0. 0. 0. 20.</_>
    <_>
      0. 0. 0. 0. -1. 0. 0. 2. 0. 0. 30.</_>
    <_>
      0. 0. -6. -2. 0. 0. 0. 0. 0. 0. 2.92893219e+00</_>
    <_>
      -25. 0. 0. 0. 0. 0. 0. 0. 0. 0. 30.</_>
    <_>
      0. 0. 0. -2. 0. 0. 0. 0. 0. 0. 10.</_>
    <_>
      7.07106781e+00 0. -27. 0. 0. 0. 0. 0. 0. 0. 10.</_>
    <_>
      0. 0. 0. -2. 0. 0. 0. 12. 0. 0. -7.07106781e+00</_>
    <_>
      0. 0. 0. -2. 0. 0. 1. 0. 0. 0. 10.</_>
    <_>
      0. 0. 0. 0. 0. 0. 1. 0. 0. 0. 40.</_>
    <_>
      0. 0. 0. 0. -2.41421366e+00 0. 0. 0. 0. 0. 2.92893219e+00</_>
    <_>
      1.20710678e+01 0. 0. 0. 0. 0. 0. 0. 0. 0. 10.</_>
    <_>
      -40. 0. 0. 0. 0. 0. 0. 0. 0. 0. 15.</_>
    <_>
      -5. -24. 0. 0. 0. 0. 0. 0. 0. 0. 10.</_>
    <_>
      0. -4. 0. 0. 0. 0. 0. 0. 0. 0. 15.</_>
    <_>
      0. 0. 0. 0. -1. 0. 0. 0. 0. 0. 2.92893219e+00</_>
    <_>
      0. 0. 0. 0. 0. 0. 0. 0. 0. 0. -7.07106781e+00</_>
    <_>
      0. 0. 3. -10. 0. 0. 0. 0. 0. 0. 4.15831223e+01</_>
    <_>
      -5. 0. 0. 0. 0. 0. 0. 0. 0. 0. 35.</_>
    <_>
      0. 0. 0. 0. 0. 0. 0. 0. 0. 0. 3.61803398e+01</_>
    <_>
      0. 0. 0. 0. 0. 0. -4.57649136e+00 0. 0. 0. 10.</_>
    <_>
      0. 0. 0. 0. 0. 0. -2.82842708e+00 0. 0. 0. 15.</_>
    <_>
      0. 0. 0. 0. 0. 0. 0. 0. 0. 0. 10.</_>
    <_>
      0. 0. 0. 0. 0. 0. 0. 0. 0. 0. 35.</_>
    <_>
      0. 0. 0. 0. 0. 0. -3.65028143e+00 -4. 0. 0. 15.</_>
    <_>
      0. 0. 0. 0. 0. 0. 0. -2. 0. 0. 25.</_>
    <_>
      0. 0. 0. -4. 0. 0. 0. 0. 0. 0. -1.82514076e+01</_>
    <_>
      0. 0. 0. 0. 0. 0. 0. 0. 0. 0. -1.18033981e+00</_>
    <_>
      0. 0. 0. 0. 0. 0. 0. 0. 0. 0. -2.07106781e+00</_>
    <_>
      0. 0. 0. 0. 0. 0. 0. 0. 0. 0. -9.14213562e+00</_>
    <_>
      0. 0. 0. 0. 0. 0. 0. 0. 0. 0. -1.18033981e+00</_>
    <_>
      0. 0. 0. -4. 0. 0. 0. 0. 0. 0. 20.</_>
    <_>
      0. 0. 0. 0. 0. 0. 0. 0. 0. 0. 30.</_>
    <_>
      0. 0. 0. 0. 0. 0. 0. 2.75165863e+01 0. 0. 10.</_>
    <_>
      0. 0. 0. 0. 0. 0. 2. 0. 0. 0. 25.</_>
    <_>
      0. 0. 0. 0. 0. 0. 0. 2. 0. 0. 15.</_>
    <_>
      0. 0. 0. 0. 0. 0. 0. 0. 0. 0. 15.</_>
    <_>
      0. 0. 0. 0. 0. 0. 0. 0. 0. 0. 30.</_>
    <_>
      0. 0. 0. 0. 0. 0. 0. 0. 0. 0. 25.</_>
    <_>
      0. 0. 0. 0. 0. 0. 0. 0. 0. 0. 20.</_>
    <_>
      0. 0. 0. 0. 0. 0. 0. 0. 0. 0. 15.</_>
    <_>
      0. 0. 0. 0. 0. 0. 0. 0. 0. 0. 20.</_>
    <_>
      0. 0. 0. 0. 0. 0. 0. 0. 0. 0. 25.</_>
    <_>
      0. 0. 0. 0. 0. 0. 0. 0. 0. 0. 8.81966019e+00</_>
    <_>
      -10. 0. 0. 0. 0. 0. 0. 0. 0. 0. 40.</_>
    <_>
      0. 0. 0. 0. 0. 0. -1.41421354e+00 -4.82842731e+00 0. 0. 25.</_>
    <_>
      0. 0. 0. 0. 0. 0. 0. 0. 0. 0. 2.29289322e+01</_>
    <_>
      0. 0. 0. -6. 0. 0. 0. 0. 0. 0. 10.</_>
    <_>
      0. 0. -3. -4. 0. 0. 0. 0. 0. 0. 2.38196602e+01</_>
    <_>
      0. 0. 0. 0. 0. 0. 0. 0. 0. 0. 10.</_>
    <_>
      0. 0. 0. 9.46167660e+00 0. 0. 0. 0. 0. 0. -2.07106781e+00</_>
    <_>
      0. 0. -4.24264050e+00 0. 0. 0. 0. 0. 0. 0. 10.</_>
    <_>
      0. 0. 0. 0. 0. 0. 1. 0. 0. 0. 20.</_>
    <_>
      0. 0. 0. -2. 0. 0. 0. 0. 0. 0. -7.07106781e+00</_>
    <_>
      0. 0. 0. 0. -3. 0. 0. 0. 0. 0. -1.20710678e+01</_>
    <_>
      0. 0. 0. -6. 0. 0. 0. 0. 0. 0. 20.</_>
    <_>
      0. 0. 0. -4. 0. 0. 1. 0. 0. 0. -7.07106781e+00</_>
    <_>
      0. 0. 0. 0. -2. 0. 0. 0. 0. 0. -9.14213562e+00</_>
    <_>
      0. 0. 0. 0. 0. 0. 0. 0. 0. 0. -9.14213562e+00</_>
    <_>
      0. 0. 0. -8. 0. 0. 0. -3.65685415e+00 0. 0. 15.</_>
    <_>
      0. 0. 0. -1.17157292e+00 0. 0. 0. 0. 0. 0. -7.07106781e+00</_>
    <_>
      -5. 0. 0. 0. 0. 0. 0. 0. 0. 0. 10.</_>
    <_>
      0. 0. 0. 0. -1. 0. 0. 0. 0. 0. -7.07106781e+00</_>
    <_>
      0. 0. 0. 0. -2. 0. 0. 0. 0. 0. -7.07106781e+00</_>
    <_>
      0. 0. 0. 0. -2. 0. 0. 0. 0. 0. -1.57793560e+01</_>
    <_>
      0. 0. 0. 0. 0. 0. 0. 0. 0. 0. 1.33974648e+00</_>
    <_>
      0. 0. 0. 0. 0. 0. 0. 0. 0. 0. -1.73606796e+01</_>
    <_>
      0. 0. 0. 0. 0. 0. 0. 0. 0. 0. 35.</_>
    <_>
      0. 0. 0. 0. 0. 0. 0. 0. 0. 0. 2.63397465e+01</_>
    <_>
      0. -4. 0. 0. 0. 0. 0. 0. 0. 0. 25.</_>
    <_>
      0. 0. 0. 0. 0. 0. 0. 2. 0. 0. 15.</_>
    <_>
      0. 0. 0. 0. 0. 0. 0. 0. 0. 0. -2.12132034e+01</_>
    <_>
      -10. 0. 0. 0. 0. 0. 0. 0. 0. 0. -2.07106781e+00</_>
    <_>
      0. 0. 0. 0. 0. 0. 0. 0. 0. 0. -1.22474480e+01</_>
    <_>
      -5. 0. 0. 0. 0. 0. 0. 0. 0. 0. 10.</_>
    <_>
      0. 0. 0. -4. 0. 0. -4.14213538e-01 0. 0. 0. 10.</_>
    <_>
      0. 0. 0. 0. -2. 0. 0. 0. 0. 0. 35.</_>
    <_>
      0. 0. 0. 0. 0. 0. 0. 0. 0. 0. -7.07106781e+00</_>
    <_>
      0. 0. 0. 0. 0. 0. 0. 0. 0. 0. -1.20710678e+01</_>
    <_>
      -10. 0. 0. 0. 0. 0. 0. 0. 0. 0. -2.07106781e+00</_>
    <_>
      0. 0. 0. 0. -2. 0. 0. 0. 0. 0. -2.07106781e+00</_>
    <_>
      0. 0. 0. 0. 0. 0. 2. 0. 0. 0. 15.</_>
    <_>
      0. 0. 0. 0. 0. 0. 0. 0. 0. 0. 7.07106781e+00</_>
    <_>
      0. 0. 0. 0. 0. 0. 0. 0. 0. 0. 2.92893219e+00</_>
    <_>
      0. 0. 0. 0. 0. 0. 0. 0. 0. 0. 2.92893219e+00</_>
    <_>
      -10. 0. 0. 0. -3. 0. 0. 0. 0. 0. 10.</_></support_vectors>
  <decision_functions>
    <_>
      <sv_count>374</sv_count>
      <rho>-5.5162821923881444e-01</rho>
      <alpha>
        4.4837244431398376e-01 4.4837403618278865e-01
        4.4837138618671174e-01 4.4837786614154135e-01
        4.4837221770985780e-01 4.4837234504454027e-01
        4.4836935294119989e-01 4.4837266239003648e-01
        4.4837285493894063e-01 9.9231933084891499e-01
        4.4836605613024705e-01 4.4837510358258359e-01
        4.4837056370634504e-01 4.4837786614154124e-01
        4.4837184039008504e-01 4.4837216870399560e-01
        4.4837361513418389e-01 4.4837403618278870e-01
        4.4837214074878634e-01 4.4837760298624341e-01
        4.4837193591146896e-01 4.4837106458435166e-01
        4.4837276640495555e-01 4.4837278473944364e-01
        4.4836817690377356e-01 4.4836942435357746e-01
        4.4837175479541352e-01 4.4837282671095924e-01
        4.4837735935822487e-01 4.4836947039079877e-01
        4.4836941689027426e-01 4.4836719064819525e-01
        4.4836719064819525e-01 4.4837178509330117e-01
        4.4837939806004617e-01 4.4836701381760591e-01
        4.4837271313291821e-01 4.4837277029735140e-01
        4.4837179958926110e-01 4.4837205020501808e-01
        4.4837178509330106e-01 4.4836829552152513e-01
        4.4837221770985797e-01 4.4837196755178582e-01
        4.4837161314595547e-01 4.4837235828405675e-01
        4.4837497215723349e-01 4.4837215829683186e-01
        4.4837022052216835e-01 4.4837701952093412e-01
        4.4837205567809862e-01 4.4837203474227139e-01
        4.4837760298624357e-01 4.4837403618278870e-01
        4.4836719064815989e-01 4.4836701381760591e-01
        4.4838010109069709e-01 4.4837309673437625e-01
        4.4838016660300967e-01 4.4836867642280492e-01
        4.4837298182678637e-01 4.4837234504454032e-01
        4.4837190851420983e-01 4.4837268286817072e-01
        4.4837407886600428e-01 4.4837244431398365e-01
        4.4837298182678642e-01 4.4837175479541369e-01
        4.4836711395147533e-01 4.4837735935822481e-01
        4.4837287907739737e-01 4.4837382492165767e-01
        4.4837217692299636e-01 4.4837382492165767e-01
        4.4837194551902027e-01 4.4836741348769010e-01
        4.4836977172433196e-01 4.4836948116768433e-01
        4.4837196755178577e-01 4.4836937058283688e-01
        4.4837283077611595e-01 4.4837382970514728e-01
        4.4837399034680342e-01 4.4837276076510818e-01
        4.4836896551753491e-01 4.4836623731521602e-01
        4.4837277029735134e-01 4.4836817690377367e-01
        4.4836719064816000e-01 4.4837470960817849e-01
        4.4837282291051539e-01 4.4836953024738224e-01
        4.4837026255596052e-01 4.4837288593572394e-01
        4.4837265140637089e-01 4.4836972257649416e-01
        4.4837399034680347e-01 4.4836719064815989e-01
        4.4837031056678472e-01 4.4837002496448514e-01
        4.4837441450614907e-01 4.4837236320078300e-01
        4.4837217692299641e-01 4.4837269018351572e-01
        4.4836576512156351e-01 4.4837760298624335e-01
        4.4838021479376844e-01 4.4837263929079185e-01
        4.4837406990233558e-01 4.4836843610608407e-01
        4.4837139374713847e-01 4.4836474494552098e-01
        4.4836768350452821e-01 4.4837701952093417e-01
        4.4837263929079285e-01 4.4837309673437603e-01
        4.4837019297400671e-01 4.4837139374713852e-01
        4.4837319700986034e-01 4.4837424861956326e-01
        4.4837214074878656e-01 4.4837227985463474e-01
        4.4837198268403455e-01 4.4836935294119989e-01
        4.4837470960817849e-01 4.4837263929079191e-01
        4.4837139374713836e-01 4.4836711395147533e-01
        4.4837277029735140e-01 4.4836719064819525e-01
        4.4837276076510807e-01 4.4837296294809531e-01
        4.4837266239003676e-01 4.4837077843302370e-01
        4.4836935294119995e-01 4.4837335709795662e-01
        4.4836779133346755e-01 4.4837214074878645e-01
        4.4837280284966530e-01 4.4837249191105000e-01
        4.4836576512156362e-01 4.4837214074878656e-01
        4.4837077843302381e-01 4.4837269018351578e-01
        4.4837263778109276e-01 4.4836719064816000e-01
        4.4836719064819525e-01 4.4837277029735145e-01
        4.4837326481936901e-01 4.4836935294119995e-01
        4.4836935294119995e-01 4.4836576512156368e-01
        4.4837452948359374e-01 4.4837077843302381e-01
        4.4837205020501814e-01 4.4837194551902032e-01
        4.4837209816481238e-01 4.4837268286817084e-01
        4.4837470960817838e-01 4.4836474508569729e-01
        4.4837319700986034e-01 4.4837404092328176e-01
        4.4837139374713858e-01 4.4837267535193470e-01
        4.4836623731521613e-01 4.4837195127261859e-01
        4.4836711395147516e-01 4.4837242403484762e-01
        4.4837283077611606e-01 4.4836934894437014e-01
        4.4837327971547636e-01 4.4836605613024694e-01
        4.4837558628863372e-01 4.4837280284966541e-01
        4.4837382970514544e-01 4.4836977172433196e-01
        4.4837186763953230e-01 4.4837786614154129e-01
        4.4837404092328170e-01 4.4837217821178044e-01
        4.4837187550201263e-01 4.4837282901551767e-01
        4.4837760298624335e-01 4.4836937058283699e-01
        4.4836896551753502e-01 4.4837236320078305e-01
        4.4837276640495555e-01 4.4837187550201268e-01
        4.4837186763953224e-01 4.4837249421484277e-01
        4.4837235828405680e-01 4.4836474494552098e-01
        4.4836643965821921e-01 4.4837193591146901e-01
        4.4837236428716493e-01 4.4836594586117745e-01
        4.4837002480430138e-01 4.4836474508569746e-01
        4.4836700841861743e-01 4.4837203474227144e-01
        4.4836576512156362e-01 4.4837209816481244e-01
        4.4837464552478346e-01 4.4837276640495544e-01
        4.4836700841861743e-01 4.4838016660300967e-01
        4.4837154253238920e-01 4.4837184039008510e-01
        4.4837236428716482e-01 4.4837288593572400e-01
        4.4838021479376994e-01 4.4836867642280498e-01
        4.4836711395147516e-01 4.4837233789734843e-01
        4.4837227985463490e-01 4.4836796597988021e-01
        4.4836935294119989e-01 4.4837233789734854e-01
        4.4836779133346738e-01 4.4836930559830740e-01
        4.4837786614154124e-01 4.4837249421484293e-01
        4.4837313940286294e-01 4.4836934894437014e-01
        4.4836829552152513e-01 4.4837440108516824e-01
        4.4837282901551778e-01 4.4837276640495549e-01
        4.4837270719686556e-01 4.4837403618278865e-01
        4.4837285688239015e-01 4.4837055872124482e-01
        4.4837129792671665e-01 4.4837470960817855e-01
        4.4837077843302386e-01 4.4837361513418406e-01
        4.4836856504046496e-01 4.4837407886600428e-01
        4.4837002480430133e-01 4.4836942435357763e-01
        4.4837382970514533e-01 4.4837847208702430e-01
        4.4837031056678456e-01 4.4837247809082043e-01
        4.4837449745805896e-01 4.4837205567809851e-01
        4.4837282671095918e-01 4.4836843610608401e-01 -1. -1.
        -8.5313610218667169e-01 -8.4866301352919593e-01
        -2.9378561902745315e-01 -7.1498707181629345e-02
        -9.9942285715214751e-01 -2.8852942758069411e-01
        -9.9955309297276251e-01 -1. -1. -1. -1. -1.
        -9.1492055197426247e-01 -1. -1. -1. -1. -1.
        -3.6318256070734700e-01 -9.1833017121031391e-01 -1. -1. -1. -1.
        -6.4599982891209096e-01 -9.9895391700248726e-01
        -4.8382374631232639e-01 -1. -5.4546908157383656e-01 -1.
        -9.9219007482917476e-01 -5.5447076872278023e-01
        -9.9630641352230553e-01 -1. -1. -9.9990388194824387e-01 -1.
        -5.5943831202486982e-01 -1. -1. -1. -1. -8.3866284198759899e-01
        -2.7001061545712490e-01 -1. -1. -1. -1. -1. -1.
        -4.4325222632976280e-02 -1. -6.5290674023010586e-01
        -5.5531337165726646e-01 -7.1093576408279335e-01 -1. -1. -1.
        -8.2003054665463460e-01 -3.6670252990644370e-01 -1. -1.
        -5.2416623731412226e-01 -1. -1. -1. -1. -1. -1. -1. -1. -1. -1.
        -9.9926118127335861e-01 -1. -7.8719972080440770e-01 -1.
        -7.1665968750030573e-01 -8.6969608408023591e-01 -1.
        -9.0035738766852269e-01 -1. -1. -1. -4.7941871241056400e-01 -1.
        -1. -1. -1. -1. -1. -1. -1. -1. -1. -1. -1. -1. -1. -1. -1. -1.
        -1. -1. -1. -9.7907321068365294e-01 -5.8284637870563661e-03 -1.
        -1. -1. -1. -1. -1. -1. -6.2967450527429109e-02
        -5.1499357654146016e-01 -1. -1. -1. -1. -1. -1. -1.
        -3.1405101627313442e-01</alpha></_></decision_functions></opencv_ml_svm>
</opencv_storage>
